18
18
2
(0.011218242154567553, 0.007090587072221282)
(0.014066501183356115, -0.0016020846161902114)
(0.009960978391362198, -0.012749967359442898)
(-0.0068738781685583564, 0.011142982108253752)
(0.009066822118139596, 1.5651909575861078)
(-0.0013587524550064845, 1.5648059822998885)
(0.0, 0.0)
(0.0, 0.0)
(0.0, 0.0)
(-0.036156636841420065, 1.5741817617735672)
(-0.020800673520616042, 1.5417280595430074)
(0.0, 0.0)
(0.0, 0.0)
(0.0, 0.0)
(0.0, 0.0)
(0.0, 0.0)
(0.0, 0.0)
(0.0, 0.0)
(0.0, 0.0)
(0.0, 0.0)
(0.0, 0.0)
(0.0, 0.0)
(-0.04606745007172602, 0.8218535498114878)
(0.00410038564970191, 0.8044855213018547)
(-0.020614515271286674, 0.8334346246287573)
(0.0, 0.0)
(0.0, 0.0)
(0.0, 0.0)
(0.0, 0.0)
(0.0, 0.0)
(0.0, 0.0)
(0.0, 0.0)
(0.0, 0.0)
(0.0, 0.0)
(0.0, 0.0)
(0.04059577164695825, 0.7611275342561585)
(0.0, 0.0)
(0.0, 0.0)
(0.0, 0.0)
(0.0, 0.0)
(-0.016869598384702186, -0.005921779083232859)
(0.0026104349898386837, -0.004615950502578081)
(0.019385610474394226, -0.002329119660996306)
(-0.0005241718538988094, -0.017192370842264687)
(0.010375535725934401, -0.006870888794249859)
(0.006846150732137666, 0.003188976583108252)
(0.005888210195259638, 0.0019329333388713767)
(-0.01424235059363563, 0.008078901097454688)
(-0.015160751447158881, 0.009330142625645391)
(0.0009360394611388312, -0.011123733679723134)
(-0.006913602256249374, 0.004109414730623895)
(0.014164374512336186, 0.007882294127143622)
(-0.013821125780666823, 0.019653931546013883)
(-0.007702622025765389, 0.009204928697064907)
(-0.002311493232255706, -0.01783012293040796)
(0.014289399545651867, 0.012277008377504256)
(0.012239512560579304, -0.0031789568943655943)
(-0.015587431833990646, 0.004208745519656518)
(-0.006875556933401526, 0.008937993622699168)
(0.017357947701660194, -0.018293345454773537)
(-0.012435314273104266, 0.008827436298873068)
(-0.017427145182315303, -0.007538584375010955)
(-0.013011076377736588, 0.018336687623826436)
(-0.017143989360878843, -0.018047974724658196)
(0.01801176864925462, 0.012668561596892242)
(-0.005423555641993399, -0.005487789130191514)
(0.012178528350536708, -0.01684179450278783)
(0.006111451626384561, 0.007990897077660607)
(0.008212493254664964, 0.00863305369402656)
(-0.011674263944240907, -0.006849712942536157)
(0.007412558646053853, -0.005672064919833741)
(-0.005786441978740906, 0.01925441336278599)
(-0.003879667111606935, -0.0027457207070535005)
(-0.002682494631924488, 0.017371415034977168)
(-0.018915516276708313, -0.01039225575895835)
(0.011717905484061509, 0.01650437681710657)
(0.018038440072255225, -0.009061550416821272)
(0.013166249376069913, -0.01882490167315425)
(0.018238810601449974, 0.0035115355654388525)
(0.003246357910208908, -0.017711102274979438)
(-0.010660681072386255, -0.017153861823029203)
(-0.015100962883788815, 0.008572181749337075)
(-0.008620118790113006, -0.019952850326173558)
(0.0011898994076212953, 0.01223810270297276)
(-0.016159970782603634, 0.018107653802681943)
(-0.015540036410628351, -0.01535072797405944)
(-0.006115529424025299, -0.0010734067028775173)
(-0.016297544260485606, 0.008603630811420819)
(0.007774525353505828, -0.00828630348498395)
(-0.0038580304910263096, -0.004849012683899199)
(-0.0025862262167037067, -0.002605600359152942)
(0.0127070626120963, 0.001667122463064108)
(-0.0020920745184957613, 0.007404239878764587)
(-0.013013231308522194, -0.009797516740577184)
(-0.016421346768929694, -0.006073119378080137)
(0.007902338430136395, 0.016045769802459454)
(0.0006756559788515526, 0.0025241714371156522)
(-0.01556814286389402, 0.015200218188922131)
(0.009420957342579098, -0.006770003464502925)
(-0.00729093134927874, 0.010515605610105574)
(-0.004374474786789309, 0.015494381805387598)
(-0.014180791795153627, 0.007965438680447452)
(0.006589832479185729, 0.0045626353513006195)
(-0.018880375196834526, -0.008394754563889287)
(-0.013962380255375635, 0.004781814724189806)
(-0.007672360116865935, 0.0029801624232522264)
(-0.004995297735941477, 0.00302880996616548)
(0.0021790494044976105, 0.011845362764625968)
(-0.00792347555491181, -0.00022163908281247924)
(0.015457122687954433, 0.01901731316804985)
(0.001266884487526987, 0.015806709395317274)
(-0.017568762740980272, 0.01758558246257568)
(-0.013450079923677504, -0.00548965481312448)
(0.018766165669342052, 0.017564390757634354)
(0.01564509805673998, -0.01670088873981179)
(0.007402511374603673, -0.007319929387312438)
(0.002095386808947679, 0.00755726053024683)
(-0.0033618957808990092, 0.00595468881452692)
(-0.012021594730937776, -0.00833744202254818)
(0.006253209034161631, 0.007602523628740072)
(0.010067199897213799, -0.008413098652620982)
(-0.013636077276407211, -0.005812628041675545)
(0.006221127498719796, 0.014866129692349506)
(-0.012156292320085433, -0.008374195223345903)
(-0.0005741166447777734, -0.002968217952821344)
(0.018737845566900117, 0.011151263299110249)
(0.008794785690463996, 0.008093117960712286)
(0.002218957031391784, -0.0040445097510600015)
(-0.004767097118620076, -0.012170754411840963)
(0.0013731310200973913, -0.01620817623698784)
(0.002579908850986348, -0.013331535882882634)
(-0.006425392156066789, 0.000577002901644188)
(-0.017481621470367487, -0.01047851110272226)
(-0.001755210719047735, 0.019399407550491663)
(-0.01654691001497562, 0.016638851595477615)
(0.0, 0.0)
(0.0, 0.0)
(0.013284548781729622, -0.006438785768624555)
(-0.07408303488686085, 0.013942469934052416)
(-0.049867511358551414, 0.025103517089653707)
(-0.08882167050792973, 0.07983566081944427)
(-0.05802402106820142, 0.04978080597274584)
(0.09920502111313284, 0.0015195060394824766)
(0.08103073343433756, 0.004511993374198742)
(0.051094329934633524, -0.016819845920590208)
(0.04214711384928565, 0.004048841520625515)
(-0.020934905682045393, 0.002779257973077027)
(0.08119616119737337, 0.013940761720693544)
(-0.08089579797397257, 0.008624200832640585)
(-0.008322901709384576, 0.01018158428664401)
(0.0185326692381395, 0.011629332650259032)
(-0.01223001889793594, 0.01083501753895824)
(0.01844859177721687, -0.01609991381306351)
(-0.016954119698034155, -0.005017579725951094)
(0.0011748454111275431, -0.010314985290147552)
(-0.03886529501701883, -0.02636683229988479)
(0.0590054990805986, -0.02767077244159888)
